<?xml version="1.0"?>
<opencv_storage>
<stage7>
  <maxWeakCount>7</maxWeakCount>
  <stageThreshold>-1.0631752014160156e+00</stageThreshold>
  <weakClassifiers>
    <_>
      <internalNodes>
        0 -1 7855820 -5.1017524674534798e-04</internalNodes>
      <leafValues>
        3.2673266530036926e-01 -7.1673822402954102e-01</leafValues></_>
    <_>
      <internalNodes>
        0 -1 1307103 -1.6371098160743713e-01</internalNodes>
      <leafValues>
        4.8530802130699158e-01 -5.7357662916183472e-01</leafValues></_>
    <_>
      <internalNodes>
        0 -1 8523924 8.7288601207546890e-05</internalNodes>
      <leafValues>
        2.8274828195571899e-01 -8.7992012500762939e-01</leafValues></_>
    <_>
      <internalNodes>
        0 -1 10521102 -3.0157796572893858e-04</internalNodes>
      <leafValues>
        8.5278320312500000e-01 -3.2444167137145996e-01</leafValues></_>
    <_>
      <internalNodes>
        0 -1 6824910 2.4102158931782469e-05</internalNodes>
      <leafValues>
        -7.4942529201507568e-01 3.5465073585510254e-01</leafValues></_>
    <_>
      <internalNodes>
        0 -1 11221273 -1.3596295611932874e-03</internalNodes>
      <leafValues>
        8.0256259441375732e-01 -3.5836821794509888e-01</leafValues></_>
    <_>
      <internalNodes>
        0 -1 9653676 2.1540130546782166e-05</internalNodes>
      <leafValues>
        -6.6713660955429077e-01 4.2949476838111877e-01</leafValues></_></weakClassifiers></stage7>
</opencv_storage>
