<?xml version="1.0"?>
<opencv_storage>
<cascade>
  <stageType>BOOST</stageType>
  <featureType>HAAR</featureType>
  <height>50</height>
  <width>80</width>
  <stageParams>
    <boostType>GAB</boostType>
    <minHitRate>9.9500000476837158e-01</minHitRate>
    <maxFalseAlarm>4.0000000596046448e-01</maxFalseAlarm>
    <weightTrimRate>9.4999999999999996e-01</weightTrimRate>
    <maxDepth>1</maxDepth>
    <maxWeakCount>100</maxWeakCount></stageParams>
  <featureParams>
    <maxCatCount>0</maxCatCount>
    <featSize>1</featSize>
    <mode>ALL</mode></featureParams>
  <stageNum>18</stageNum>
  <stages>
    <!-- stage 0 -->
    <_>
      <maxWeakCount>5</maxWeakCount>
      <stageThreshold>-1.2522249221801758e+00</stageThreshold>
      <weakClassifiers>
        <_>
          <internalNodes>
            0 -1 27 4.5871220529079437e-02</internalNodes>
          <leafValues>
            -8.5654008388519287e-01 7.1134018898010254e-01</leafValues></_>
        <_>
          <internalNodes>
            0 -1 31 -5.6397631764411926e-02</internalNodes>
          <leafValues>
            7.1613729000091553e-01 -6.3883388042449951e-01</leafValues></_>
        <_>
          <internalNodes>
            0 -1 15 6.5427891968283802e-05</internalNodes>
          <leafValues>
            -9.3833547830581665e-01 4.5616105198860168e-01</leafValues></_>
        <_>
          <internalNodes>
            0 -1 36 -2.2720698267221451e-02</internalNodes>
          <leafValues>
            5.3455841541290283e-01 -6.2595307826995850e-01</leafValues></_>
        <_>
          <internalNodes>
            0 -1 81 -5.0608185119926929e-05</internalNodes>
          <leafValues>
            -9.5336002111434937e-01 4.1294106841087341e-01</leafValues></_></weakClassifiers></_>
    <!-- stage 1 -->
    <_>
      <maxWeakCount>5</maxWeakCount>
      <stageThreshold>-8.3759379386901855e-01</stageThreshold>
      <weakClassifiers>
        <_>
          <internalNodes>
            0 -1 38 5.0551937893033028e-03</internalNodes>
          <leafValues>
            -9.0909093618392944e-01 3.3823528885841370e-01</leafValues></_>
        <_>
          <internalNodes>
            0 -1 4 -5.2945367991924286e-02</internalNodes>
          <leafValues>
            8.9073532819747925e-01 -5.6053519248962402e-01</leafValues></_>
        <_>
          <internalNodes>
            0 -1 35 -1.3898752513341606e-04</internalNodes>
          <leafValues>
            4.9234408140182495e-01 -7.5133562088012695e-01</leafValues></_>
        <_>
          <internalNodes>
            0 -1 29 2.2299345582723618e-03</internalNodes>
          <leafValues>
            -6.0299617052078247e-01 5.9891086816787720e-01</leafValues></_>
        <_>
          <internalNodes>
            0 -1 40 -9.6930190920829773e-03</internalNodes>
          <leafValues>
            7.9682570695877075e-01 -4.5922267436981201e-01</leafValues></_></weakClassifiers></_>
    <!-- stage 2 -->
    <_>
      <maxWeakCount>6</maxWeakCount>
      <stageThreshold>-1.3845376968383789e+00</stageThreshold>
      <weakClassifiers>
        <_>
          <internalNodes>
            0 -1 22 -4.3761901557445526e-02</internalNodes>
          <leafValues>
            5.4000002145767212e-01 -8.0341881513595581e-01</leafValues></_>
        <_>
          <internalNodes>
            0 -1 10 1.0880491696298122e-02</internalNodes>
          <leafValues>
            -6.8766546249389648e-01 6.2978523969650269e-01</leafValues></_>
        <_>
          <internalNodes>
            0 -1 82 3.7911911931587383e-05</internalNodes>
          <leafValues>
            3.1925281882286072e-01 -9.3822908401489258e-01</leafValues></_>
        <_>
          <internalNodes>
            0 -1 33 5.2741268882527947e-04</internalNodes>
          <leafValues>
            -7.8464847803115845e-01 3.6186823248863220e-01</leafValues></_>
        <_>
          <internalNodes>
            0 -1 55 -2.5843107141554356e-04</internalNodes>
          <leafValues>
            -9.9008494615554810e-01 3.1578323245048523e-01</leafValues></_>
        <_>
          <internalNodes>
            0 -1 85 4.3654697947204113e-05</internalNodes>
          <leafValues>
            2.5615900754928589e-01 -1.</leafValues></_></weakClassifiers></_>
    <!-- stage 3 -->
    <_>
      <maxWeakCount>4</maxWeakCount>
      <stageThreshold>-7.1511787176132202e-01</stageThreshold>
      <weakClassifiers>
        <_>
          <internalNodes>
            0 -1 7 -2.3985993862152100e-01</internalNodes>
          <leafValues>
            5.8333331346511841e-01 -6.7175573110580444e-01</leafValues></_>
        <_>
          <internalNodes>
            0 -1 5 -4.3100394308567047e-02</internalNodes>
          <leafValues>
            5.3949183225631714e-01 -6.5762555599212646e-01</leafValues></_>
        <_>
          <internalNodes>
            0 -1 75 -2.6776979211717844e-05</internalNodes>
          <leafValues>
            -9.6468520164489746e-01 3.1397119164466858e-01</leafValues></_>
        <_>
          <internalNodes>
            0 -1 86 3.6197870940668508e-05</internalNodes>
          <leafValues>
            3.0029222369194031e-01 -9.5818865299224854e-01</leafValues></_></weakClassifiers></_>
    <!-- stage 4 -->
    <_>
      <maxWeakCount>5</maxWeakCount>
      <stageThreshold>-9.5034927129745483e-01</stageThreshold>
      <weakClassifiers>
        <_>
          <internalNodes>
            0 -1 41 -6.6514890640974045e-03</internalNodes>
          <leafValues>
            7.1929824352264404e-01 -6.3176894187927246e-01</leafValues></_>
        <_>
          <internalNodes>
            0 -1 74 1.1106102647318039e-05</internalNodes>
          <leafValues>
            3.9746740460395813e-01 -8.8560593128204346e-01</leafValues></_>
        <_>
          <internalNodes>
            0 -1 54 7.0192804560065269e-04</internalNodes>
          <leafValues>
            -6.0393667221069336e-01 5.0813055038452148e-01</leafValues></_>
        <_>
          <internalNodes>
            0 -1 88 -1.4413672499358654e-02</internalNodes>
          <leafValues>
            8.3448880910873413e-01 -3.9969849586486816e-01</leafValues></_>
        <_>
          <internalNodes>
            0 -1 84 -3.3360272936988622e-05</internalNodes>
          <leafValues>
            -8.2447975873947144e-01 4.8804509639739990e-01</leafValues></_></weakClassifiers></_>
    <!-- stage 5 -->
    <_>
      <maxWeakCount>5</maxWeakCount>
      <stageThreshold>-8.4944224357604980e-01</stageThreshold>
      <weakClassifiers>
        <_>
          <internalNodes>
            0 -1 49 -1.8385860603302717e-03</internalNodes>
          <leafValues>
            4.5238095521926880e-01 -6.8800002336502075e-01</leafValues></_>
        <_>
          <internalNodes>
            0 -1 2 -8.7427303194999695e-02</internalNodes>
          <leafValues>
            6.1239892244338989e-01 -4.8706489801406860e-01</leafValues></_>
        <_>
          <internalNodes>
            0 -1 76 1.3444103387882933e-05</internalNodes>
          <leafValues>
            3.2826521992683411e-01 -9.7475880384445190e-01</leafValues></_>
        <_>
          <internalNodes>
            0 -1 21 -4.6119955368340015e-04</internalNodes>
          <leafValues>
            8.5224038362503052e-01 -3.8044649362564087e-01</leafValues></_>
        <_>
          <internalNodes>
            0 -1 51 -9.3274698883760720e-05</internalNodes>
          <leafValues>
            -9.7892129421234131e-01 3.7780395150184631e-01</leafValues></_></weakClassifiers></_>
    <!-- stage 6 -->
    <_>
      <maxWeakCount>6</maxWeakCount>
      <stageThreshold>-6.6460704803466797e-01</stageThreshold>
      <weakClassifiers>
        <_>
          <internalNodes>
            0 -1 58 -3.2669972279109061e-04</internalNodes>
          <leafValues>
            5.8730161190032959e-01 -6.3099628686904907e-01</leafValues></_>
        <_>
          <internalNodes>
            0 -1 94 1.5916074335109442e-04</internalNodes>
          <leafValues>
            -7.5851720571517944e-01 4.4334566593170166e-01</leafValues></_>
        <_>
          <internalNodes>
            0 -1 79 6.5754354000091553e-03</internalNodes>
          <leafValues>
            -7.2507345676422119e-01 4.3840187788009644e-01</leafValues></_>
        <_>
          <internalNodes>
            0 -1 78 -6.0176020488142967e-03</internalNodes>
          <leafValues>
            4.6575081348419189e-01 -6.0785400867462158e-01</leafValues></_>
        <_>
          <internalNodes>
            0 -1 44 1.0077508632093668e-03</internalNodes>
          <leafValues>
            3.2271033525466919e-01 -9.0301078557968140e-01</leafValues></_>
        <_>
          <internalNodes>
            0 -1 18 -3.0226781964302063e-03</internalNodes>
          <leafValues>
            6.6151875257492065e-01 -4.4406518340110779e-01</leafValues></_></weakClassifiers></_>
    <!-- stage 7 -->
    <_>
      <maxWeakCount>7</maxWeakCount>
      <stageThreshold>-1.0631752014160156e+00</stageThreshold>
      <weakClassifiers>
        <_>
          <internalNodes>
            0 -1 47 -5.1017524674534798e-04</internalNodes>
          <leafValues>
            3.2673266530036926e-01 -7.1673822402954102e-01</leafValues></_>
        <_>
          <internalNodes>
            0 -1 3 -1.6371098160743713e-01</internalNodes>
          <leafValues>
            4.8530802130699158e-01 -5.7357662916183472e-01</leafValues></_>
        <_>
          <internalNodes>
            0 -1 56 8.7288601207546890e-05</internalNodes>
          <leafValues>
            2.8274828195571899e-01 -8.7992012500762939e-01</leafValues></_>
        <_>
          <internalNodes>
            0 -1 90 -3.0157796572893858e-04</internalNodes>
          <leafValues>
            8.5278320312500000e-01 -3.2444167137145996e-01</leafValues></_>
        <_>
          <internalNodes>
            0 -1 32 2.4102158931782469e-05</internalNodes>
          <leafValues>
            -7.4942529201507568e-01 3.5465073585510254e-01</leafValues></_>
        <_>
          <internalNodes>
            0 -1 96 -1.3596295611932874e-03</internalNodes>
          <leafValues>
            8.0256259441375732e-01 -3.5836821794509888e-01</leafValues></_>
        <_>
          <internalNodes>
            0 -1 70 2.1540130546782166e-05</internalNodes>
          <leafValues>
            -6.6713660955429077e-01 4.2949476838111877e-01</leafValues></_></weakClassifiers></_>
    <!-- stage 8 -->
    <_>
      <maxWeakCount>5</maxWeakCount>
      <stageThreshold>-9.6521735191345215e-01</stageThreshold>
      <weakClassifiers>
        <_>
          <internalNodes>
            0 -1 57 -1.0484306840226054e-03</internalNodes>
          <leafValues>
            6.6666668653488159e-01 -6.0714286565780640e-01</leafValues></_>
        <_>
          <internalNodes>
            0 -1 92 2.6914894115179777e-03</internalNodes>
          <leafValues>
            -5.1117682456970215e-01 6.4105522632598877e-01</leafValues></_>
        <_>
          <internalNodes>
            0 -1 24 -7.3033850640058517e-04</internalNodes>
          <leafValues>
            2.9326668381690979e-01 -7.2943365573883057e-01</leafValues></_>
        <_>
          <internalNodes>
            0 -1 63 -3.0071132641751319e-05</internalNodes>
          <leafValues>
            -9.3600547313690186e-01 2.5072228908538818e-01</leafValues></_>
        <_>
          <internalNodes>
            0 -1 87 2.0700684399344027e-04</internalNodes>
          <leafValues>
            -3.9088663458824158e-01 8.1676656007766724e-01</leafValues></_></weakClassifiers></_>
    <!-- stage 9 -->
    <_>
      <maxWeakCount>5</maxWeakCount>
      <stageThreshold>-9.0507638454437256e-01</stageThreshold>
      <weakClassifiers>
        <_>
          <internalNodes>
            0 -1 34 1.5570886898785830e-03</internalNodes>
          <leafValues>
            -6.1313867568969727e-01 5.6666666269302368e-01</leafValues></_>
        <_>
          <internalNodes>
            0 -1 99 6.4502563327550888e-04</internalNodes>
          <leafValues>
            -7.1014338731765747e-01 3.5989993810653687e-01</leafValues></_>
        <_>
          <internalNodes>
            0 -1 26 -6.6322842612862587e-03</internalNodes>
          <leafValues>
            7.3688018321990967e-01 -3.7622785568237305e-01</leafValues></_>
        <_>
          <internalNodes>
            0 -1 62 5.1420069212326780e-05</internalNodes>
          <leafValues>
            3.0592384934425354e-01 -8.7358111143112183e-01</leafValues></_>
        <_>
          <internalNodes>
            0 -1 98 -2.5613624602556229e-03</internalNodes>
          <leafValues>
            4.8850965499877930e-01 -4.7267979383468628e-01</leafValues></_></weakClassifiers></_>
    <!-- stage 10 -->
    <_>
      <maxWeakCount>7</maxWeakCount>
      <stageThreshold>-1.1977884769439697e+00</stageThreshold>
      <weakClassifiers>
        <_>
          <internalNodes>
            0 -1 12 -3.9273615926504135e-02</internalNodes>
          <leafValues>
            5.5555555969476700e-02 -7.4736839532852173e-01</leafValues></_>
        <_>
          <internalNodes>
            0 -1 71 -4.9062298785429448e-05</internalNodes>
          <leafValues>
            3.3045685291290283e-01 -6.1546581983566284e-01</leafValues></_>
        <_>
          <internalNodes>
            0 -1 73 1.0354329424444586e-04</internalNodes>
          <leafValues>
            2.1179482340812683e-01 -9.4649165868759155e-01</leafValues></_>
        <_>
          <internalNodes>
            0 -1 9 7.5134285725653172e-04</internalNodes>
          <leafValues>
            -3.1385073065757751e-01 7.7141851186752319e-01</leafValues></_>
        <_>
          <internalNodes>
            0 -1 67 -5.7105004088953137e-05</internalNodes>
          <leafValues>
            -8.2787501811981201e-01 3.1807303428649902e-01</leafValues></_>
        <_>
          <internalNodes>
            0 -1 64 -2.7327256975695491e-04</internalNodes>
          <leafValues>
            3.7702220678329468e-01 -6.2252020835876465e-01</leafValues></_>
        <_>
          <internalNodes>
            0 -1 25 -5.0438870675861835e-04</internalNodes>
          <leafValues>
            6.9359314441680908e-01 -3.6731469631195068e-01</leafValues></_></weakClassifiers></_>
    <!-- stage 11 -->
    <_>
      <maxWeakCount>5</maxWeakCount>
      <stageThreshold>-5.4798954725265503e-01</stageThreshold>
      <weakClassifiers>
        <_>
          <internalNodes>
            0 -1 30 8.9353852672502398e-04</internalNodes>
          <leafValues>
            -6.4999997615814209e-01 2.3404255509376526e-01</leafValues></_>
        <_>
          <internalNodes>
            0 -1 52 2.8888307497254573e-06</internalNodes>
          <leafValues>
            -7.1505784988403320e-01 2.7454790472984314e-01</leafValues></_>
        <_>
          <internalNodes>
            0 -1 43 1.2799087911844254e-02</internalNodes>
          <leafValues>
            2.0793685317039490e-01 -9.4526767730712891e-01</leafValues></_>
        <_>
          <internalNodes>
            0 -1 91 -2.8572532755788416e-05</internalNodes>
          <leafValues>
            -8.6511194705963135e-01 2.1652705967426300e-01</leafValues></_>
        <_>
          <internalNodes>
            0 -1 60 -3.4445855999365449e-04</internalNodes>
          <leafValues>
            6.0354429483413696e-01 -3.9940494298934937e-01</leafValues></_></weakClassifiers></_>
    <!-- stage 12 -->
    <_>
      <maxWeakCount>7</maxWeakCount>
      <stageThreshold>-8.7688165903091431e-01</stageThreshold>
      <weakClassifiers>
        <_>
          <internalNodes>
            0 -1 83 -3.7929520476609468e-04</internalNodes>
          <leafValues>
            6.4444446563720703e-01 -5.6401383876800537e-01</leafValues></_>
        <_>
          <internalNodes>
            0 -1 61 -1.8512287351768464e-04</internalNodes>
          <leafValues>
            5.4431051015853882e-01 -4.0431702136993408e-01</leafValues></_>
        <_>
          <internalNodes>
            0 -1 59 1.1053985508624464e-04</internalNodes>
          <leafValues>
            -5.7971704006195068e-01 4.2313742637634277e-01</leafValues></_>
        <_>
          <internalNodes>
            0 -1 23 -8.6704955901950598e-04</internalNodes>
          <leafValues>
            5.4561895132064819e-01 -5.0321042537689209e-01</leafValues></_>
        <_>
          <internalNodes>
            0 -1 102 -1.9731360225705430e-05</internalNodes>
          <leafValues>
            -7.9910719394683838e-01 3.0378022789955139e-01</leafValues></_>
        <_>
          <internalNodes>
            0 -1 0 -1.3738248962908983e-03</internalNodes>
          <leafValues>
            5.8714443445205688e-01 -5.2251279354095459e-01</leafValues></_>
        <_>
          <internalNodes>
            0 -1 13 -1.7985329031944275e-02</internalNodes>
          <leafValues>
            4.8937410116195679e-01 -5.0431466102600098e-01</leafValues></_></weakClassifiers></_>
    <!-- stage 13 -->
    <_>
      <maxWeakCount>6</maxWeakCount>
      <stageThreshold>-8.9096218347549438e-01</stageThreshold>
      <weakClassifiers>
        <_>
          <internalNodes>
            0 -1 19 -8.2232542335987091e-03</internalNodes>
          <leafValues>
            6.4999997615814209e-01 -5.4421770572662354e-01</leafValues></_>
        <_>
          <internalNodes>
            0 -1 45 -3.7394456740003079e-05</internalNodes>
          <leafValues>
            -8.9464288949966431e-01 2.1696455776691437e-01</leafValues></_>
        <_>
          <internalNodes>
            0 -1 95 -1.4508806634694338e-03</internalNodes>
          <leafValues>
            2.3669970035552979e-01 -7.5709807872772217e-01</leafValues></_>
        <_>
          <internalNodes>
            0 -1 1 -1.4396108686923981e-01</internalNodes>
          <leafValues>
            4.7678646445274353e-01 -4.9768200516700745e-01</leafValues></_>
        <_>
          <internalNodes>
            0 -1 89 6.3237916037905961e-05</internalNodes>
          <leafValues>
            -4.8486968874931335e-01 5.4598510265350342e-01</leafValues></_>
        <_>
          <internalNodes>
            0 -1 80 2.9853747037122957e-05</internalNodes>
          <leafValues>
            2.6289561390876770e-01 -8.3034926652908325e-01</leafValues></_></weakClassifiers></_>
    <!-- stage 14 -->
    <_>
      <maxWeakCount>6</maxWeakCount>
      <stageThreshold>-6.5948563814163208e-01</stageThreshold>
      <weakClassifiers>
        <_>
          <internalNodes>
            0 -1 93 1.1457054642960429e-04</internalNodes>
          <leafValues>
            -5.7597172260284424e-01 5.6862747669219971e-01</leafValues></_>
        <_>
          <internalNodes>
            0 -1 16 -1.2047055643051863e-03</internalNodes>
          <leafValues>
            4.3777742981910706e-01 -4.5709866285324097e-01</leafValues></_>
        <_>
          <internalNodes>
            0 -1 68 -9.1054876975249499e-05</internalNodes>
          <leafValues>
            -7.6954102516174316e-01 2.9516714811325073e-01</leafValues></_>
        <_>
          <internalNodes>
            0 -1 69 1.7194486281368881e-04</internalNodes>
          <leafValues>
            -5.2918583154678345e-01 4.3907353281974792e-01</leafValues></_>
        <_>
          <internalNodes>
            0 -1 97 -1.7382318619638681e-03</internalNodes>
          <leafValues>
            4.7031748294830322e-01 -4.7738808393478394e-01</leafValues></_>
        <_>
          <internalNodes>
            0 -1 101 -3.7731410702690482e-04</internalNodes>
          <leafValues>
            -8.3047258853912354e-01 3.0711802840232849e-01</leafValues></_></weakClassifiers></_>
    <!-- stage 15 -->
    <_>
      <maxWeakCount>7</maxWeakCount>
      <stageThreshold>-7.8804451227188110e-01</stageThreshold>
      <weakClassifiers>
        <_>
          <internalNodes>
            0 -1 8 -4.8126298934221268e-03</internalNodes>
          <leafValues>
            4.4262295961380005e-01 -5.8974361419677734e-01</leafValues></_>
        <_>
          <internalNodes>
            0 -1 20 -1.1888245120644569e-02</internalNodes>
          <leafValues>
            3.6118486523628235e-01 -5.2760040760040283e-01</leafValues></_>
        <_>
          <internalNodes>
            0 -1 50 -9.9456410680431873e-06</internalNodes>
          <leafValues>
            -7.2194218635559082e-01 2.6369735598564148e-01</leafValues></_>
        <_>
          <internalNodes>
            0 -1 6 1.1429323349148035e-03</internalNodes>
          <leafValues>
            -3.0547773838043213e-01 7.3938947916030884e-01</leafValues></_>
        <_>
          <internalNodes>
            0 -1 11 1.6865211364347488e-04</internalNodes>
          <leafValues>
            4.0828630328178406e-01 -6.2100684642791748e-01</leafValues></_>
        <_>
          <internalNodes>
            0 -1 48 -1.0222447104752064e-02</internalNodes>
          <leafValues>
            6.3757812976837158e-01 -3.5894420742988586e-01</leafValues></_>
        <_>
          <internalNodes>
            0 -1 14 -2.1670498426828999e-06</internalNodes>
          <leafValues>
            -4.9100449681282043e-01 4.6224567294120789e-01</leafValues></_></weakClassifiers></_>
    <!-- stage 16 -->
    <_>
      <maxWeakCount>7</maxWeakCount>
      <stageThreshold>-9.5695984363555908e-01</stageThreshold>
      <weakClassifiers>
        <_>
          <internalNodes>
            0 -1 28 8.0579920904710889e-05</internalNodes>
          <leafValues>
            -7.7142858505249023e-01 6.2893079593777657e-03</leafValues></_>
        <_>
          <internalNodes>
            0 -1 53 -4.2578805732773617e-05</internalNodes>
          <leafValues>
            -9.3099826574325562e-01 1.1660770326852798e-01</leafValues></_>
        <_>
          <internalNodes>
            0 -1 37 6.3188828062266111e-04</internalNodes>
          <leafValues>
            -4.9415796995162964e-01 3.7657046318054199e-01</leafValues></_>
        <_>
          <internalNodes>
            0 -1 100 -3.4687709994614124e-03</internalNodes>
          <leafValues>
            -8.8064986467361450e-01 2.1168205142021179e-01</leafValues></_>
        <_>
          <internalNodes>
            0 -1 17 1.5518724918365479e-02</internalNodes>
          <leafValues>
            2.1391735970973969e-01 -8.2482808828353882e-01</leafValues></_>
        <_>
          <internalNodes>
            0 -1 66 -2.4283677339553833e-04</internalNodes>
          <leafValues>
            7.6715219020843506e-01 -3.2938838005065918e-01</leafValues></_>
        <_>
          <internalNodes>
            0 -1 42 -3.3160476014018059e-03</internalNodes>
          <leafValues>
            -9.4800823926925659e-01 2.6382502913475037e-01</leafValues></_></weakClassifiers></_>
    <!-- stage 17 -->
    <_>
      <maxWeakCount>8</maxWeakCount>
      <stageThreshold>-1.0420594215393066e+00</stageThreshold>
      <weakClassifiers>
        <_>
          <internalNodes>
            0 -1 65 -6.4101048337761313e-05</internalNodes>
          <leafValues>
            3.5135135054588318e-01 -6.1538463830947876e-01</leafValues></_>
        <_>
          <internalNodes>
            0 -1 72 4.3767498573288321e-04</internalNodes>
          <leafValues>
            -8.1886500120162964e-01 2.1679450571537018e-01</leafValues></_>
        <_>
          <internalNodes>
            0 -1 53 3.4904136555269361e-05</internalNodes>
          <leafValues>
            2.4974671006202698e-01 -7.4333536624908447e-01</leafValues></_>
        <_>
          <internalNodes>
            0 -1 104 -9.0907778940163553e-05</internalNodes>
          <leafValues>
            4.5360589027404785e-01 -4.5881688594818115e-01</leafValues></_>
        <_>
          <internalNodes>
            0 -1 77 -1.3111645785102155e-05</internalNodes>
          <leafValues>
            -9.0872746706008911e-01 2.1968668699264526e-01</leafValues></_>
        <_>
          <internalNodes>
            0 -1 46 -3.3344508847221732e-04</internalNodes>
          <leafValues>
            3.6177441477775574e-01 -5.6531780958175659e-01</leafValues></_>
        <_>
          <internalNodes>
            0 -1 39 6.8897806340828538e-04</internalNodes>
          <leafValues>
            -3.0666244029998779e-01 8.0034089088439941e-01</leafValues></_>
        <_>
          <internalNodes>
            0 -1 103 2.3160286946222186e-04</internalNodes>
          <leafValues>
            3.4113115072250366e-01 -8.0384343862533569e-01</leafValues></_></weakClassifiers></_></stages>
  <features>
    <_>
      <rects>
        <_>
          0 10 16 15 -1.</_>
        <_>
          4 10 8 15 2.</_></rects>
      <tilted>0</tilted></_>
    <_>
      <rects>
        <_>
          1 3 78 38 -1.</_>
        <_>
          27 3 26 38 3.</_></rects>
      <tilted>0</tilted></_>
    <_>
      <rects>
        <_>
          3 4 77 21 -1.</_>
        <_>
          3 11 77 7 3.</_></rects>
      <tilted>0</tilted></_>
    <_>
      <rects>
        <_>
          5 6 69 44 -1.</_>
        <_>
          28 6 23 44 3.</_></rects>
      <tilted>0</tilted></_>
    <_>
      <rects>
        <_>
          5 36 72 6 -1.</_>
        <_>
          23 36 36 6 2.</_></rects>
      <tilted>0</tilted></_>
    <_>
      <rects>
        <_>
          7 0 72 18 -1.</_>
        <_>
          7 9 72 9 2.</_></rects>
      <tilted>0</tilted></_>
    <_>
      <rects>
        <_>
          10 8 70 4 -1.</_>
        <_>
          10 9 70 2 2.</_></rects>
      <tilted>0</tilted></_>
    <_>
      <rects>
        <_>
          10 25 54 24 -1.</_>
        <_>
          28 33 18 8 9.</_></rects>
      <tilted>0</tilted></_>
    <_>
      <rects>
        <_>
          10 38 27 3 -1.</_>
        <_>
          19 39 9 1 9.</_></rects>
      <tilted>0</tilted></_>
    <_>
      <rects>
        <_>
          12 11 56 3 -1.</_>
        <_>
          12 12 56 1 3.</_></rects>
      <tilted>0</tilted></_>
    <_>
      <rects>
        <_>
          12 22 50 16 -1.</_>
        <_>
          12 26 50 8 2.</_></rects>
      <tilted>0</tilted></_>
    <_>
      <rects>
        <_>
          12 26 6 3 -1.</_>
        <_>
          14 28 2 3 3.</_></rects>
      <tilted>1</tilted></_>
    <_>
      <rects>
        <_>
          13 17 45 33 -1.</_>
        <_>
          28 17 15 33 3.</_></rects>
      <tilted>0</tilted></_>
    <_>
      <rects>
        <_>
          14 1 50 20 -1.</_>
        <_>
          14 11 50 10 2.</_></rects>
      <tilted>0</tilted></_>
    <_>
      <rects>
        <_>
          16 18 2 1 -1.</_>
        <_>
          16 18 1 1 2.</_></rects>
      <tilted>1</tilted></_>
    <_>
      <rects>
        <_>
          19 10 36 1 -1.</_>
        <_>
          19 10 18 1 2.</_></rects>
      <tilted>1</tilted></_>
    <_>
      <rects>
        <_>
          21 10 15 16 -1.</_>
        <_>
          26 10 5 16 3.</_></rects>
      <tilted>0</tilted></_>
    <_>
      <rects>
        <_>
          23 6 34 8 -1.</_>
        <_>
          23 6 34 4 2.</_></rects>
      <tilted>1</tilted></_>
    <_>
      <rects>
        <_>
          23 21 10 9 -1.</_>
        <_>
          20 24 10 3 3.</_></rects>
      <tilted>1</tilted></_>
    <_>
      <rects>
        <_>
          24 0 24 9 -1.</_>
        <_>
          24 3 24 3 3.</_></rects>
      <tilted>0</tilted></_>
    <_>
      <rects>
        <_>
          24 7 32 29 -1.</_>
        <_>
          32 7 16 29 2.</_></rects>
      <tilted>0</tilted></_>
    <_>
      <rects>
        <_>
          24 42 16 3 -1.</_>
        <_>
          24 43 16 1 3.</_></rects>
      <tilted>0</tilted></_>
    <_>
      <rects>
        <_>
          27 0 42 28 -1.</_>
        <_>
          27 7 42 14 2.</_></rects>
      <tilted>0</tilted></_>
    <_>
      <rects>
        <_>
          27 24 16 10 -1.</_>
        <_>
          31 24 8 10 2.</_></rects>
      <tilted>0</tilted></_>
    <_>
      <rects>
        <_>
          27 31 16 7 -1.</_>
        <_>
          35 31 8 7 2.</_></rects>
      <tilted>0</tilted></_>
    <_>
      <rects>
        <_>
          27 41 32 2 -1.</_>
        <_>
          27 41 16 1 2.</_>
        <_>
          43 42 16 1 2.</_></rects>
      <tilted>0</tilted></_>
    <_>
      <rects>
        <_>
          28 6 19 9 -1.</_>
        <_>
          28 9 19 3 3.</_></rects>
      <tilted>0</tilted></_>
    <_>
      <rects>
        <_>
          28 11 33 28 -1.</_>
        <_>
          28 18 33 14 2.</_></rects>
      <tilted>0</tilted></_>
    <_>
      <rects>
        <_>
          28 15 7 2 -1.</_>
        <_>
          28 16 7 1 2.</_></rects>
      <tilted>0</tilted></_>
    <_>
      <rects>
        <_>
          28 15 20 12 -1.</_>
        <_>
          28 18 20 6 2.</_></rects>
      <tilted>0</tilted></_>
    <_>
      <rects>
        <_>
          28 32 8 6 -1.</_>
        <_>
          28 32 4 3 2.</_>
        <_>
          32 35 4 3 2.</_></rects>
      <tilted>0</tilted></_>
    <_>
      <rects>
        <_>
          29 0 50 24 -1.</_>
        <_>
          29 8 50 8 3.</_></rects>
      <tilted>0</tilted></_>
    <_>
      <rects>
        <_>
          29 18 2 8 -1.</_>
        <_>
          29 20 2 4 2.</_></rects>
      <tilted>0</tilted></_>
    <_>
      <rects>
        <_>
          29 24 21 8 -1.</_>
        <_>
          29 26 21 4 2.</_></rects>
      <tilted>0</tilted></_>
    <_>
      <rects>
        <_>
          29 27 19 4 -1.</_>
        <_>
          28 28 19 2 2.</_></rects>
      <tilted>1</tilted></_>
    <_>
      <rects>
        <_>
          29 49 16 1 -1.</_>
        <_>
          37 49 8 1 2.</_></rects>
      <tilted>0</tilted></_>
    <_>
      <rects>
        <_>
          30 1 46 18 -1.</_>
        <_>
          30 10 46 9 2.</_></rects>
      <tilted>0</tilted></_>
    <_>
      <rects>
        <_>
          30 27 18 6 -1.</_>
        <_>
          30 29 18 2 3.</_></rects>
      <tilted>0</tilted></_>
    <_>
      <rects>
        <_>
          31 18 18 16 -1.</_>
        <_>
          31 22 18 8 2.</_></rects>
      <tilted>0</tilted></_>
    <_>
      <rects>
        <_>
          31 32 21 4 -1.</_>
        <_>
          31 33 21 2 2.</_></rects>
      <tilted>0</tilted></_>
    <_>
      <rects>
        <_>
          31 39 40 6 -1.</_>
        <_>
          41 39 20 6 2.</_></rects>
      <tilted>0</tilted></_>
    <_>
      <rects>
        <_>
          32 30 22 8 -1.</_>
        <_>
          32 32 22 4 2.</_></rects>
      <tilted>0</tilted></_>
    <_>
      <rects>
        <_>
          33 12 4 10 -1.</_>
        <_>
          33 12 2 10 2.</_></rects>
      <tilted>1</tilted></_>
    <_>
      <rects>
        <_>
          33 14 21 12 -1.</_>
        <_>
          40 18 7 4 9.</_></rects>
      <tilted>0</tilted></_>
    <_>
      <rects>
        <_>
          34 22 18 8 -1.</_>
        <_>
          40 22 6 8 3.</_></rects>
      <tilted>0</tilted></_>
    <_>
      <rects>
        <_>
          34 24 3 5 -1.</_>
        <_>
          35 24 1 5 3.</_></rects>
      <tilted>0</tilted></_>
    <_>
      <rects>
        <_>
          34 48 16 2 -1.</_>
        <_>
          38 48 8 2 2.</_></rects>
      <tilted>0</tilted></_>
    <_>
      <rects>
        <_>
          34 49 16 1 -1.</_>
        <_>
          38 49 8 1 2.</_></rects>
      <tilted>0</tilted></_>
    <_>
      <rects>
        <_>
          35 6 38 10 -1.</_>
        <_>
          35 6 19 5 2.</_>
        <_>
          54 11 19 5 2.</_></rects>
      <tilted>0</tilted></_>
    <_>
      <rects>
        <_>
          35 27 5 6 -1.</_>
        <_>
          33 29 5 2 3.</_></rects>
      <tilted>1</tilted></_>
    <_>
      <rects>
        <_>
          36 24 3 1 -1.</_>
        <_>
          37 25 1 1 3.</_></rects>
      <tilted>1</tilted></_>
    <_>
      <rects>
        <_>
          37 17 3 13 -1.</_>
        <_>
          38 17 1 13 3.</_></rects>
      <tilted>0</tilted></_>
    <_>
      <rects>
        <_>
          37 20 10 6 -1.</_>
        <_>
          37 22 10 2 3.</_></rects>
      <tilted>0</tilted></_>
    <_>
      <rects>
        <_>
          37 28 4 4 -1.</_>
        <_>
          38 28 2 4 2.</_></rects>
      <tilted>0</tilted></_>
    <_>
      <rects>
        <_>
          38 13 11 4 -1.</_>
        <_>
          38 15 11 2 2.</_></rects>
      <tilted>0</tilted></_>
    <_>
      <rects>
        <_>
          38 21 6 11 -1.</_>
        <_>
          40 21 2 11 3.</_></rects>
      <tilted>0</tilted></_>
    <_>
      <rects>
        <_>
          38 23 10 4 -1.</_>
        <_>
          38 23 5 2 2.</_>
        <_>
          43 25 5 2 2.</_></rects>
      <tilted>0</tilted></_>
    <_>
      <rects>
        <_>
          38 47 6 3 -1.</_>
        <_>
          40 48 2 1 9.</_></rects>
      <tilted>0</tilted></_>
    <_>
      <rects>
        <_>
          39 44 3 3 -1.</_>
        <_>
          40 45 1 1 9.</_></rects>
      <tilted>0</tilted></_>
    <_>
      <rects>
        <_>
          40 15 8 2 -1.</_>
        <_>
          42 17 4 2 2.</_></rects>
      <tilted>1</tilted></_>
    <_>
      <rects>
        <_>
          41 26 39 1 -1.</_>
        <_>
          54 26 13 1 3.</_></rects>
      <tilted>0</tilted></_>
    <_>
      <rects>
        <_>
          41 44 3 3 -1.</_>
        <_>
          42 45 1 1 9.</_></rects>
      <tilted>0</tilted></_>
    <_>
      <rects>
        <_>
          42 20 4 8 -1.</_>
        <_>
          43 20 2 8 2.</_></rects>
      <tilted>0</tilted></_>
    <_>
      <rects>
        <_>
          42 21 3 4 -1.</_>
        <_>
          43 21 1 4 3.</_></rects>
      <tilted>0</tilted></_>
    <_>
      <rects>
        <_>
          42 23 12 13 -1.</_>
        <_>
          45 23 6 13 2.</_></rects>
      <tilted>0</tilted></_>
    <_>
      <rects>
        <_>
          42 37 1 3 -1.</_>
        <_>
          42 38 1 1 3.</_></rects>
      <tilted>0</tilted></_>
    <_>
      <rects>
        <_>
          42 42 3 3 -1.</_>
        <_>
          42 43 3 1 3.</_></rects>
      <tilted>0</tilted></_>
    <_>
      <rects>
        <_>
          43 23 3 8 -1.</_>
        <_>
          44 23 1 8 3.</_></rects>
      <tilted>0</tilted></_>
    <_>
      <rects>
        <_>
          43 28 6 4 -1.</_>
        <_>
          45 28 2 4 3.</_></rects>
      <tilted>0</tilted></_>
    <_>
      <rects>
        <_>
          44 12 9 6 -1.</_>
        <_>
          42 14 9 2 3.</_></rects>
      <tilted>1</tilted></_>
    <_>
      <rects>
        <_>
          45 23 1 8 -1.</_>
        <_>
          45 25 1 4 2.</_></rects>
      <tilted>0</tilted></_>
    <_>
      <rects>
        <_>
          46 13 2 2 -1.</_>
        <_>
          46 13 1 2 2.</_></rects>
      <tilted>1</tilted></_>
    <_>
      <rects>
        <_>
          46 20 3 12 -1.</_>
        <_>
          42 24 3 4 3.</_></rects>
      <tilted>1</tilted></_>
    <_>
      <rects>
        <_>
          46 21 9 2 -1.</_>
        <_>
          49 21 3 2 3.</_></rects>
      <tilted>0</tilted></_>
    <_>
      <rects>
        <_>
          47 21 4 1 -1.</_>
        <_>
          48 21 2 1 2.</_></rects>
      <tilted>0</tilted></_>
    <_>
      <rects>
        <_>
          47 21 4 3 -1.</_>
        <_>
          48 21 2 3 2.</_></rects>
      <tilted>0</tilted></_>
    <_>
      <rects>
        <_>
          47 22 3 1 -1.</_>
        <_>
          48 22 1 1 3.</_></rects>
      <tilted>0</tilted></_>
    <_>
      <rects>
        <_>
          47 24 1 3 -1.</_>
        <_>
          46 25 1 1 3.</_></rects>
      <tilted>1</tilted></_>
    <_>
      <rects>
        <_>
          48 0 27 14 -1.</_>
        <_>
          48 7 27 7 2.</_></rects>
      <tilted>0</tilted></_>
    <_>
      <rects>
        <_>
          48 10 10 26 -1.</_>
        <_>
          48 10 5 26 2.</_></rects>
      <tilted>1</tilted></_>
    <_>
      <rects>
        <_>
          48 15 8 1 -1.</_>
        <_>
          50 15 4 1 2.</_></rects>
      <tilted>0</tilted></_>
    <_>
      <rects>
        <_>
          48 20 2 7 -1.</_>
        <_>
          49 20 1 7 2.</_></rects>
      <tilted>0</tilted></_>
    <_>
      <rects>
        <_>
          48 22 3 4 -1.</_>
        <_>
          49 22 1 4 3.</_></rects>
      <tilted>0</tilted></_>
    <_>
      <rects>
        <_>
          48 41 4 3 -1.</_>
        <_>
          48 42 4 1 3.</_></rects>
      <tilted>0</tilted></_>
    <_>
      <rects>
        <_>
          49 21 2 8 -1.</_>
        <_>
          49 21 1 4 2.</_>
        <_>
          50 25 1 4 2.</_></rects>
      <tilted>0</tilted></_>
    <_>
      <rects>
        <_>
          49 22 4 3 -1.</_>
        <_>
          50 22 2 3 2.</_></rects>
      <tilted>0</tilted></_>
    <_>
      <rects>
        <_>
          49 22 2 6 -1.</_>
        <_>
          49 22 1 3 2.</_>
        <_>
          50 25 1 3 2.</_></rects>
      <tilted>0</tilted></_>
    <_>
      <rects>
        <_>
          49 45 3 3 -1.</_>
        <_>
          49 46 3 1 3.</_></rects>
      <tilted>0</tilted></_>
    <_>
      <rects>
        <_>
          51 0 6 22 -1.</_>
        <_>
          51 11 6 11 2.</_></rects>
      <tilted>0</tilted></_>
    <_>
      <rects>
        <_>
          51 13 1 4 -1.</_>
        <_>
          51 15 1 2 2.</_></rects>
      <tilted>0</tilted></_>
    <_>
      <rects>
        <_>
          51 42 1 6 -1.</_>
        <_>
          51 44 1 2 3.</_></rects>
      <tilted>0</tilted></_>
    <_>
      <rects>
        <_>
          52 25 3 4 -1.</_>
        <_>
          51 26 3 2 2.</_></rects>
      <tilted>1</tilted></_>
    <_>
      <rects>
        <_>
          52 39 28 1 -1.</_>
        <_>
          66 39 14 1 2.</_></rects>
      <tilted>0</tilted></_>
    <_>
      <rects>
        <_>
          54 42 1 3 -1.</_>
        <_>
          54 43 1 1 3.</_></rects>
      <tilted>0</tilted></_>
    <_>
      <rects>
        <_>
          55 16 2 10 -1.</_>
        <_>
          55 21 2 5 2.</_></rects>
      <tilted>0</tilted></_>
    <_>
      <rects>
        <_>
          56 0 2 50 -1.</_>
        <_>
          56 25 2 25 2.</_></rects>
      <tilted>0</tilted></_>
    <_>
      <rects>
        <_>
          57 40 12 5 -1.</_>
        <_>
          60 40 6 5 2.</_></rects>
      <tilted>0</tilted></_>
    <_>
      <rects>
        <_>
          63 7 16 29 -1.</_>
        <_>
          67 7 8 29 2.</_></rects>
      <tilted>0</tilted></_>
    <_>
      <rects>
        <_>
          67 6 12 5 -1.</_>
        <_>
          71 10 4 5 3.</_></rects>
      <tilted>1</tilted></_>
    <_>
      <rects>
        <_>
          67 25 9 9 -1.</_>
        <_>
          64 28 9 3 3.</_></rects>
      <tilted>1</tilted></_>
    <_>
      <rects>
        <_>
          69 26 4 21 -1.</_>
        <_>
          69 33 4 7 3.</_></rects>
      <tilted>0</tilted></_>
    <_>
      <rects>
        <_>
          70 30 8 10 -1.</_>
        <_>
          70 30 4 5 2.</_>
        <_>
          74 35 4 5 2.</_></rects>
      <tilted>0</tilted></_>
    <_>
      <rects>
        <_>
          71 0 2 2 -1.</_>
        <_>
          71 1 2 1 2.</_></rects>
      <tilted>0</tilted></_>
    <_>
      <rects>
        <_>
          76 33 2 8 -1.</_>
        <_>
          76 35 2 4 2.</_></rects>
      <tilted>0</tilted></_>
    <_>
      <rects>
        <_>
          77 3 3 24 -1.</_>
        <_>
          78 4 1 24 3.</_></rects>
      <tilted>1</tilted></_></features></cascade>
</opencv_storage>
