<?xml version="1.0"?>
<opencv_storage>
<stage17>
  <maxWeakCount>8</maxWeakCount>
  <stageThreshold>-1.0420594215393066e+00</stageThreshold>
  <weakClassifiers>
    <_>
      <internalNodes>
        0 -1 9220805 -6.4101048337761313e-05</internalNodes>
      <leafValues>
        3.5135135054588318e-01 -6.1538463830947876e-01</leafValues></_>
    <_>
      <internalNodes>
        0 -1 9792555 4.3767498573288321e-04</internalNodes>
      <leafValues>
        -8.1886500120162964e-01 2.1679450571537018e-01</leafValues></_>
    <_>
      <internalNodes>
        0 -1 8364554 3.4904136555269361e-05</internalNodes>
      <leafValues>
        2.4974671006202698e-01 -7.4333536624908447e-01</leafValues></_>
    <_>
      <internalNodes>
        0 -1 12434463 -9.0907778940163553e-05</internalNodes>
      <leafValues>
        4.5360589027404785e-01 -4.5881688594818115e-01</leafValues></_>
    <_>
      <internalNodes>
        0 -1 9949846 -1.3111645785102155e-05</internalNodes>
      <leafValues>
        -9.0872746706008911e-01 2.1968668699264526e-01</leafValues></_>
    <_>
      <internalNodes>
        0 -1 7855673 -3.3344508847221732e-04</internalNodes>
      <leafValues>
        3.6177441477775574e-01 -5.6531780958175659e-01</leafValues></_>
    <_>
      <internalNodes>
        0 -1 7270909 6.8897806340828538e-04</internalNodes>
      <leafValues>
        -3.0666244029998779e-01 8.0034089088439941e-01</leafValues></_>
    <_>
      <internalNodes>
        0 -1 12430533 2.3160286946222186e-04</internalNodes>
      <leafValues>
        3.4113115072250366e-01 -8.0384343862533569e-01</leafValues></_></weakClassifiers></stage17>
</opencv_storage>
