<?xml version="1.0"?>
<opencv_storage>
<stage11>
  <maxWeakCount>5</maxWeakCount>
  <stageThreshold>-5.4798954725265503e-01</stageThreshold>
  <weakClassifiers>
    <_>
      <internalNodes>
        0 -1 6679237 8.9353852672502398e-04</internalNodes>
      <leafValues>
        -6.4999997615814209e-01 2.3404255509376526e-01</leafValues></_>
    <_>
      <internalNodes>
        0 -1 8338766 2.8888307497254573e-06</internalNodes>
      <leafValues>
        -7.1505784988403320e-01 2.7454790472984314e-01</leafValues></_>
    <_>
      <internalNodes>
        0 -1 7580818 1.2799087911844254e-02</internalNodes>
      <leafValues>
        2.0793685317039490e-01 -9.4526767730712891e-01</leafValues></_>
    <_>
      <internalNodes>
        0 -1 10624139 -2.8572532755788416e-05</internalNodes>
      <leafValues>
        -8.6511194705963135e-01 2.1652705967426300e-01</leafValues></_>
    <_>
      <internalNodes>
        0 -1 9038376 -3.4445855999365449e-04</internalNodes>
      <leafValues>
        6.0354429483413696e-01 -3.9940494298934937e-01</leafValues></_></weakClassifiers></stage11>
</opencv_storage>
