<?xml version="1.0"?>
<opencv_storage>
<stage2>
  <maxWeakCount>6</maxWeakCount>
  <stageThreshold>-1.3845376968383789e+00</stageThreshold>
  <weakClassifiers>
    <_>
      <internalNodes>
        0 -1 6302833 -4.3761901557445526e-02</internalNodes>
      <leafValues>
        5.4000002145767212e-01 -8.0341881513595581e-01</leafValues></_>
    <_>
      <internalNodes>
        0 -1 3115295 1.0880491696298122e-02</internalNodes>
      <leafValues>
        -6.8766546249389648e-01 6.2978523969650269e-01</leafValues></_>
    <_>
      <internalNodes>
        0 -1 10085805 3.7911911931587383e-05</internalNodes>
      <leafValues>
        3.1925281882286072e-01 -9.3822908401489258e-01</leafValues></_>
    <_>
      <internalNodes>
        0 -1 6854818 5.2741268882527947e-04</internalNodes>
      <leafValues>
        -7.8464847803115845e-01 3.6186823248863220e-01</leafValues></_>
    <_>
      <internalNodes>
        0 -1 8515907 -2.5843107141554356e-04</internalNodes>
      <leafValues>
        -9.9008494615554810e-01 3.1578323245048523e-01</leafValues></_>
    <_>
      <internalNodes>
        0 -1 10223122 4.3654697947204113e-05</internalNodes>
      <leafValues>
        2.5615900754928589e-01 -1.</leafValues></_></weakClassifiers></stage2>
</opencv_storage>
