<?xml version="1.0"?>
<opencv_storage>
<stage5>
  <maxWeakCount>5</maxWeakCount>
  <stageThreshold>-8.4944224357604980e-01</stageThreshold>
  <weakClassifiers>
    <_>
      <internalNodes>
        0 -1 8005424 -1.8385860603302717e-03</internalNodes>
      <leafValues>
        4.5238095521926880e-01 -6.8800002336502075e-01</leafValues></_>
    <_>
      <internalNodes>
        0 -1 797254 -8.7427303194999695e-02</internalNodes>
      <leafValues>
        6.1239892244338989e-01 -4.8706489801406860e-01</leafValues></_>
    <_>
      <internalNodes>
        0 -1 9943892 1.3444103387882933e-05</internalNodes>
      <leafValues>
        3.2826521992683411e-01 -9.7475880384445190e-01</leafValues></_>
    <_>
      <internalNodes>
        0 -1 5873915 -4.6119955368340015e-04</internalNodes>
      <leafValues>
        8.5224038362503052e-01 -3.8044649362564087e-01</leafValues></_>
    <_>
      <internalNodes>
        0 -1 8323808 -9.3274698883760720e-05</internalNodes>
      <leafValues>
        -9.7892129421234131e-01 3.7780395150184631e-01</leafValues></_></weakClassifiers></stage5>
</opencv_storage>
